{
	"diminput": 62,
	"samplesmean": {
		"columns": [
			0.09040371713580947,
			0.08623842103459986,
			0.029562993225720115,
			0.03425088227629118,
			0.046194476411365086,
			0.4415337555031436,
			0.4305398528186961,
			0.07488506417895453,
			0.06953933539708972,
			0.10326195251655786,
			5.646590397410085,
			0.36698001807004826,
			1.957399425732782,
			0.1241552217404575,
			0.12363932330043964,
			1.8124153721269745,
			0.1266179267905366,
			0.1196213595540746,
			0.960425611349636,
			0.015596323492718882,
			0.021755563646713747,
			0.0022225015109313805,
			0.904685010298983,
			1.873613091291496,
			1.5972875973304712,
			0.10475367586489395,
			0.4879867201417438,
			1.8736294697185771,
			1.5974301865422758,
			0.10898195638873832,
			0.3848367902935219,
			1.87571127127839,
			1.5968560503289309,
			0.11477456104179899,
			0.3245162273568737,
			1.8826082179419967,
			1.5970062231135176,
			0.12193777805828654,
			0.2878446529898068,
			1.892440007534687,
			1.5969353826745698,
			0.13035183409281872,
			0.2644736670573388,
			1.9078414429411354,
			1.596922744670371,
			0.13964635181549132,
			0.24919943807727332,
			1.9293023341487974,
			1.5966731142755897,
			0.14891708366018153,
			0.23890202143925118,
			1.9654189850636479,
			1.5959623533789786,
			0.1594229610494353,
			0.2318728748895427,
			2.0030568008841194,
			1.5955989567585764,
			0.1697368130435019,
			0.22715231996139937,
			2.0514208482816563,
			1.5955623093847178,
			0.1804474042175197
		]
	},
	"samplesstd": {
		"columns": [
			0.21713763950687925,
			0.2107646527275226,
			0.08540911751046104,
			0.11852257297419728,
			0.14883523408000296,
			0.4373297690233223,
			0.43086438168761204,
			0.15018699746248892,
			0.18254860504487802,
			0.2688417264185487,
			4.6977912535661375,
			0.8350531197410046,
			0.7441845178625248,
			0.3722104162054861,
			0.3945373058736706,
			0.7399923070734015,
			0.395977777152087,
			0.34576777855280866,
			0.19495806299959414,
			0.12390853885820013,
			0.14588540320092677,
			0.047091996995178166,
			0.2359874367896174,
			1.6997954243296196,
			0.9561591286418981,
			0.2295967354893782,
			0.3597610060350332,
			1.6990028040495548,
			0.9563941187713528,
			0.2322151520744109,
			0.31379477149319956,
			1.6965807883572728,
			0.956917373469534,
			0.23798079205273248,
			0.2837814726896993,
			1.6922431806027358,
			0.9576431108679572,
			0.24763779233397917,
			0.26911259596847537,
			1.6872428732655174,
			0.9580469632665287,
			0.2608388098463182,
			0.2626810703473752,
			1.6841835050697485,
			0.9579889618846965,
			0.27728749079211995,
			0.26078621532750107,
			1.687720262091468,
			0.9576092890605359,
			0.2928703542333639,
			0.2610495066461467,
			1.7158371580092444,
			0.957954155134352,
			0.31293935580752763,
			0.26240023410135116,
			1.7445987895671369,
			0.9570758298766949,
			0.3306906681043375,
			0.26445176093674994,
			1.7963849111607435,
			0.956450585271466,
			0.349543312226455
		]
	},
	"numlayer": 4,
	"layer": [
		{
			"layerinputdim": 62,
			"layeroutputdim": 30,
			"layerinputweight": {
				"rows": [
					{
						"columns": [
							-0.061181508004665375,
							-0.0004995001363568008,
							-0.024737181141972542,
							-0.0004994997289031744,
							0.0004995003691874444,
							0.0401403084397316,
							0.05997993424534798,
							0.0004995007766410708,
							0.0004994997289031744,
							0.013937011361122131,
							0.1338609755039215,
							0.04274717718362808,
							-0.0004995001945644617,
							-0.012975900433957577,
							0.06069307029247284,
							-0.096340112388134,
							-0.0004994996124878526,
							0.000499500019941479,
							0.0004995004856027663,
							0.002452493878081441,
							0.06807869672775269,
							-0.03787743300199509,
							-0.09071248024702072,
							0.0004994997871108353,
							0.019608834758400917,
							0.023237034678459167,
							-0.010718259960412979,
							0.0004994995542801917,
							0.0004994994960725307,
							0.019961092621088028
						]
					},
					{
						"columns": [
							0.03495214879512787,
							0.0004995001945644617,
							0.03601805493235588,
							-0.0004995006020180881,
							0.000499500019941479,
							-0.025962697342038155,
							-0.009225938469171524,
							-0.0004995003691874444,
							0.000499500019941479,
							-0.004575855564326048,
							0.15239618718624115,
							0.026440490037202835,
							0.0004995004856027663,
							-0.019344642758369446,
							0.05904959514737129,
							-0.0890379473567009,
							0.0004994995542801917,
							0.0004995003691874444,
							-0.0004994993796572089,
							0.009197846055030823,
							0.0460791178047657,
							-0.022049324586987495,
							0.008066637441515923,
							-0.0004994996706955135,
							-0.05162841081619263,
							0.01306610181927681,
							0.0196330938488245,
							-0.0004994997289031744,
							-0.0004994995542801917,
							0.02986798994243145
						]
					},
					{
						"columns": [
							-0.039090346544981,
							-0.0004995003691874444,
							-0.03317056596279144,
							0.0004994998453184962,
							-0.0004995000781491399,
							0.04754486680030823,
							0.09052090346813202,
							-0.000499500019941479,
							-0.000499500019941479,
							0.019709620624780655,
							0.039355866611003876,
							0.011025471612811089,
							-0.0004994996706955135,
							0.0636548101902008,
							0.006800026632845402,
							-0.02080216072499752,
							0.0004995003691874444,
							-0.0004995003691874444,
							0.0004994997289031744,
							0.008283243514597416,
							0.059103403240442276,
							0.001800374942831695,
							-0.1065661832690239,
							-0.0004995008930563927,
							0.17498812079429626,
							-0.04909820854663849,
							0.017693234607577324,
							0.0004994995542801917,
							-0.0004994995542801917,
							-0.011448539793491364
						]
					},
					{
						"columns": [
							-0.015481830574572086,
							-0.0004994997871108353,
							-0.025416433811187744,
							0.0004994998453184962,
							0.0004995004856027663,
							-0.007794007193297148,
							0.01762901432812214,
							0.0004995008930563927,
							0.0004995001363568008,
							0.0353497639298439,
							0.055849846452474594,
							-0.0006547295488417149,
							0.0004995003691874444,
							0.05848410353064537,
							0.04744001477956772,
							-0.0429455004632473,
							-0.0004995001363568008,
							0.0004994992632418871,
							-0.0004994993796572089,
							0.015111272223293781,
							0.03242345154285431,
							0.07756497710943222,
							-0.039727833122015,
							0.0004995000781491399,
							0.06688765436410904,
							-0.05858898535370827,
							0.002075791824609041,
							-0.0004995003691874444,
							-0.0004994996706955135,
							-0.01923668570816517
						]
					},
					{
						"columns": [
							-0.016206268221139908,
							0.0004994998453184962,
							-0.019637245684862137,
							-0.0004995006020180881,
							-0.0004994998453184962,
							0.011822733096778393,
							0.08857186883687973,
							-0.0004995008930563927,
							0.0004995008930563927,
							0.041049208492040634,
							0.009511134587228298,
							-0.009858930483460426,
							0.0004995004856027663,
							0.013873837888240814,
							0.04154720529913902,
							-0.038093894720077515,
							0.0004995003691874444,
							-0.0004995003691874444,
							-0.0004995004856027663,
							0.018673798069357872,
							0.03933604434132576,
							0.011791197583079338,
							-0.0649481937289238,
							0.0004995003109797835,
							0.08624108135700226,
							-0.045535288751125336,
							-0.000902875792235136,
							0.0004994995542801917,
							0.0004995003109797835,
							-0.01429776381701231
						]
					},
					{
						"columns": [
							0.08395583182573318,
							0.0004994995542801917,
							-0.059771183878183365,
							0.0004995001945644617,
							-0.0004994996706955135,
							-0.049415554851293564,
							-0.012304342351853848,
							0.0004995000781491399,
							0.0004995001363568008,
							0.08854879438877106,
							-0.0220066886395216,
							-0.1715928316116333,
							-0.0004995001945644617,
							-0.11515866219997406,
							0.04409073293209076,
							-0.0412316769361496,
							0.000499500019941479,
							-0.0004994996706955135,
							0.0004994995542801917,
							-0.0036131185479462147,
							-0.005556795280426741,
							0.0014526484301313758,
							-0.08338162302970886,
							-0.0004994996706955135,
							0.05878478288650513,
							-0.0605478473007679,
							-0.02677040733397007,
							-0.0004994997289031744,
							0.0004994993796572089,
							-0.16085901856422424
						]
					},
					{
						"columns": [
							0.052857689559459686,
							-0.000499500019941479,
							-0.05266331136226654,
							-0.0004995001363568008,
							-0.0004994997871108353,
							-0.07852534204721451,
							-0.038260359317064285,
							0.0004995001945644617,
							-0.0004995000781491399,
							0.05908144265413284,
							-0.06560339778661728,
							-0.13097690045833588,
							0.0004995004856027663,
							-0.14949113130569458,
							0.034734103828668594,
							-0.10294899344444275,
							-0.0004994997871108353,
							0.0004994994960725307,
							0.000499500019941479,
							0.004286658018827438,
							-0.012414061464369297,
							-0.035981349647045135,
							-0.14262056350708008,
							0.0004994997289031744,
							0.029778441414237022,
							-0.06796104460954666,
							-0.07640974223613739,
							-0.0004994996706955135,
							-0.0004994995542801917,
							0.0018143539782613516
						]
					},
					{
						"columns": [
							-0.009235788136720657,
							-0.0004994996706955135,
							0.029775241389870644,
							0.000499499961733818,
							-0.000499500019941479,
							0.0009125820361077785,
							0.06484727561473846,
							0.0004995008930563927,
							-0.0004994995542801917,
							0.0162143986672163,
							-0.033684734255075455,
							0.00011564709711819887,
							0.0004995004856027663,
							-0.07208679616451263,
							-0.0053349887020885944,
							0.041281379759311676,
							-0.0004995004856027663,
							-0.0004995003691874444,
							-0.0004995001363568008,
							-0.02438347600400448,
							0.029665308073163033,
							0.005656614899635315,
							0.012741810642182827,
							0.0004995007766410708,
							0.06453891098499298,
							-0.0163714736700058,
							0.05168948695063591,
							0.0004994995542801917,
							-0.000499500019941479,
							-0.051191676408052444
						]
					},
					{
						"columns": [
							-0.0480981320142746,
							-0.0004995001363568008,
							0.03562923148274422,
							-0.0004995001945644617,
							0.0004994996706955135,
							-0.052689649164676666,
							0.035377755761146545,
							-0.0004994996706955135,
							0.0004994997289031744,
							-0.02745862491428852,
							0.008698366582393646,
							0.014300821349024773,
							0.0004994993796572089,
							-0.00665326789021492,
							-0.041160907596349716,
							-0.011379179544746876,
							-0.0004994996706955135,
							0.0004994995542801917,
							0.000499500019941479,
							0.016556721180677414,
							-0.019723741337656975,
							-0.045596539974212646,
							0.0005894635105505586,
							0.0004994993796572089,
							-0.03551077842712402,
							-0.03098374977707863,
							-0.022707831114530563,
							-0.0004995000781491399,
							0.0004994996706955135,
							-0.06260501593351364
						]
					},
					{
						"columns": [
							-0.24615010619163513,
							-0.000499500019941479,
							0.05685941502451897,
							0.000499499961733818,
							-0.0004995003691874444,
							0.015715306624770164,
							-0.0330234095454216,
							-0.0004994994960725307,
							0.0004994994960725307,
							0.004487776197493076,
							0.012254470027983189,
							0.00716453418135643,
							0.0004994996706955135,
							-0.002148957457393408,
							-0.004262905567884445,
							-0.006611482240259647,
							0.0004994996706955135,
							-0.0004994994960725307,
							-0.000499500019941479,
							0.01822095364332199,
							-0.0064589111134409904,
							0.003838710952550173,
							0.0005106180324219167,
							-0.0004994992632418871,
							-0.06168529391288757,
							-0.01272656675428152,
							-0.029829975217580795,
							-0.0004995000781491399,
							-0.0004994995542801917,
							-0.10534157603979111
						]
					},
					{
						"columns": [
							0.0019374326802790165,
							-0.0004995004273951054,
							-0.06268830597400665,
							-0.0004994997289031744,
							-0.0004994996124878526,
							-0.14259617030620575,
							-0.0008784766541793942,
							-0.0004994998453184962,
							-0.0004995007766410708,
							-0.15808512270450592,
							-0.0024101678282022476,
							-0.07228992879390717,
							0.0004994997871108353,
							0.09349488466978073,
							-0.10946647077798843,
							0.08944161981344223,
							0.0004995004856027663,
							0.0004994995542801917,
							-0.000499500019941479,
							0.005544065497815609,
							-0.08015622198581696,
							0.20233844220638275,
							0.02627999521791935,
							-0.0004995003691874444,
							0.08601140230894089,
							0.12966319918632507,
							0.10401995480060577,
							0.0004994997871108353,
							0.0004995003691874444,
							0.0001390896795783192
						]
					},
					{
						"columns": [
							0.03892184793949127,
							-0.0004994995542801917,
							0.08595672994852066,
							0.0004994996706955135,
							-0.0004994995542801917,
							-0.027856148779392242,
							-0.02055433951318264,
							0.0004995007766410708,
							-0.0004995004273951054,
							-0.01233926136046648,
							-0.02839323878288269,
							-0.01221946720033884,
							0.0004995003691874444,
							0.00647013820707798,
							-0.014563312754034996,
							0.008245454169809818,
							0.0004994998453184962,
							-0.0004995004273951054,
							-0.0004995001945644617,
							0.007977316156029701,
							0.014719564467668533,
							-0.02465146593749523,
							-0.006188937462866306,
							0.0004995004273951054,
							-0.22693118453025818,
							-0.031208854168653488,
							0.08008943498134613,
							0.0004994996706955135,
							-0.0004995004856027663,
							-0.007320239674299955
						]
					},
					{
						"columns": [
							0.05863139405846596,
							0.0004995004273951054,
							0.08508409559726715,
							0.000499500019941479,
							-0.0004994994960725307,
							-0.08360995352268219,
							0.12791450321674347,
							0.0004995001363568008,
							-0.0004995004856027663,
							-0.095542311668396,
							-0.15895578265190125,
							0.14479908347129822,
							-0.0004995000781491399,
							0.03737693652510643,
							-0.0841611847281456,
							-0.08429329842329025,
							0.000499500019941479,
							-0.0004995008930563927,
							0.0004994998453184962,
							-0.0006966015207581222,
							0.04411206394433975,
							-0.09493350237607956,
							0.001853180001489818,
							-0.0004995000781491399,
							-0.0275893397629261,
							-0.09161847084760666,
							-0.033814411610364914,
							0.000499500019941479,
							-0.0004995004856027663,
							0.08022928982973099
						]
					},
					{
						"columns": [
							0.3439960479736328,
							0.0004994993796572089,
							-0.025433357805013657,
							-0.0004994928603991866,
							-0.0004994996706955135,
							0.048872996121644974,
							0.014743318781256676,
							0.000499499961733818,
							-0.0004994996706955135,
							0.010227369144558907,
							0.047757502645254135,
							-0.004496271256357431,
							-0.000499500019941479,
							-0.049763984978199005,
							0.008595045655965805,
							0.033774904906749725,
							-0.0004994996706955135,
							0.000499500019941479,
							-0.0004995003691874444,
							-0.007542754523456097,
							0.02750330977141857,
							-0.10924170166254044,
							-0.04220759496092796,
							0.0004995001945644617,
							0.011568100191652775,
							0.012291261926293373,
							-0.17711766064167023,
							-0.0004994997289031744,
							-0.000499499961733818,
							0.008746083825826645
						]
					},
					{
						"columns": [
							0.15085245668888092,
							-0.0004994995542801917,
							-0.031902920454740524,
							0.0004994995542801917,
							-0.0004994992632418871,
							-0.050991617143154144,
							0.012925930321216583,
							0.0004994996124878526,
							-0.0004994996706955135,
							-0.005128252785652876,
							0.038721900433301926,
							0.008238039910793304,
							0.0004994995542801917,
							0.0250636488199234,
							0.009594165720045567,
							0.02993474155664444,
							-0.0004995006020180881,
							0.0004994996706955135,
							-0.000499500019941479,
							-0.017369190230965614,
							0.016933094710111618,
							-0.08959230780601501,
							0.0008798465132713318,
							-0.0004994997289031744,
							-0.002002000343054533,
							0.0024097764398902655,
							-0.008834957145154476,
							0.0004995006020180881,
							0.0004994998453184962,
							0.02791850082576275
						]
					},
					{
						"columns": [
							-0.028587447479367256,
							-0.0004995001945644617,
							-0.08341176062822342,
							0.0004994997289031744,
							0.0004995003691874444,
							-0.00662152748554945,
							-0.10410694032907486,
							0.0004994997871108353,
							-0.0004994993796572089,
							-0.0047706253826618195,
							0.18664400279521942,
							-0.09123391658067703,
							-0.000499500019941479,
							0.07685653120279312,
							-0.05587354674935341,
							0.02594575472176075,
							-0.0004994995542801917,
							0.0004994997871108353,
							0.0004995004856027663,
							-0.037768639624118805,
							-0.026888305321335793,
							0.2300688624382019,
							0.032640520483255386,
							-0.0004994997289031744,
							0.16530939936637878,
							-0.044409673660993576,
							0.04217149317264557,
							0.0004994995542801917,
							0.0004994995542801917,
							-0.12262357026338577
						]
					},
					{
						"columns": [
							-0.2198745757341385,
							-0.0004994995542801917,
							-0.04083148390054703,
							0.000499493908137083,
							-0.0004994995542801917,
							-0.04911131411790848,
							0.06163307651877403,
							-0.0004995001363568008,
							0.0004995001945644617,
							-0.02329086698591709,
							-0.05251714214682579,
							0.009629343636333942,
							0.0004995003109797835,
							-0.01645648293197155,
							-0.06968310475349426,
							0.002906453562900424,
							0.0004994996706955135,
							0.0004995001363568008,
							-0.0004995000781491399,
							-0.002046788576990366,
							0.005852878093719482,
							-0.010744293220341206,
							-0.025074463337659836,
							0.0004995003691874444,
							-0.049048829823732376,
							-0.004744119476526976,
							0.004878371953964233,
							-0.0004994995542801917,
							-0.000499500019941479,
							-0.008529514074325562
						]
					},
					{
						"columns": [
							-0.16938942670822144,
							0.000499499961733818,
							0.05491739511489868,
							0.0004994995542801917,
							-0.0004995001363568008,
							0.004625714384019375,
							-0.03134729340672493,
							-0.0004994996706955135,
							-0.0004994996124878526,
							-0.005247646011412144,
							0.08692169934511185,
							0.01677563786506653,
							-0.0004995004856027663,
							0.02267000824213028,
							0.01123418565839529,
							0.03755694255232811,
							-0.0004995003109797835,
							0.0004994997289031744,
							0.0004995004273951054,
							-0.0015944135375320911,
							0.012235160917043686,
							-0.058151986449956894,
							0.03794737905263901,
							-0.0004994998453184962,
							-0.05269176885485649,
							-0.004968526307493448,
							-0.044265083968639374,
							-0.0004995004273951054,
							0.0004994995542801917,
							-0.10902140289545059
						]
					},
					{
						"columns": [
							-0.031006256118416786,
							-0.0004994997289031744,
							0.0038531904574483633,
							-0.0004994995542801917,
							0.0004995003691874444,
							-0.021657252684235573,
							-0.011074062436819077,
							-0.0004994996706955135,
							-0.0004995000781491399,
							-0.006994788069278002,
							-0.03269435092806816,
							0.06161244958639145,
							-0.0004994992632418871,
							0.052079904824495316,
							-0.04215976595878601,
							0.09653295576572418,
							0.0004994997289031744,
							0.0004995008930563927,
							-0.0004995007766410708,
							-0.029515990987420082,
							-0.0042302655056118965,
							-0.03356054052710533,
							-0.03155197203159332,
							0.000499500019941479,
							-0.053157124668359756,
							0.026375724002718925,
							0.033550702035427094,
							-0.0004994997289031744,
							0.0004995003691874444,
							0.05266132205724716
						]
					},
					{
						"columns": [
							-0.031025772914290428,
							0.0004994998453184962,
							0.003288732608780265,
							-0.0004995003691874444,
							0.0004995000781491399,
							0.0071683619171381,
							-0.010582388378679752,
							0.0004995005438104272,
							-0.0004994997289031744,
							-0.033697981387376785,
							0.10823449492454529,
							-0.035383496433496475,
							0.0004994996124878526,
							-0.022700343281030655,
							0.049717944115400314,
							0.04001447930932045,
							0.0004994996706955135,
							-0.0004995006020180881,
							0.0004995001363568008,
							0.03933575376868248,
							0.006323710549622774,
							-0.044288214296102524,
							0.04577897489070892,
							0.0004994995542801917,
							0.047130655497312546,
							0.016050778329372406,
							0.029623765498399734,
							-0.0004995003691874444,
							-0.0004995001945644617,
							-0.02501397393643856
						]
					},
					{
						"columns": [
							-0.013146400451660156,
							-0.0004995004856027663,
							-0.016621146351099014,
							0.0004994998453184962,
							0.0004995007766410708,
							-0.017299678176641464,
							-0.020352672785520554,
							-0.0004995007766410708,
							-0.0004995000781491399,
							-0.006216264795511961,
							0.06793038547039032,
							-0.055883921682834625,
							0.000499500019941479,
							0.09397771209478378,
							-0.026906387880444527,
							0.0358455590903759,
							-0.0004994998453184962,
							-0.0004994992632418871,
							0.000499500019941479,
							-0.00894606951624155,
							-0.030946440994739532,
							0.04861412197351456,
							0.018824759870767593,
							-0.0004994995542801917,
							0.005927874706685543,
							0.03470287099480629,
							0.007961917668581009,
							0.0004995004856027663,
							0.0004995006020180881,
							-0.04550459608435631
						]
					},
					{
						"columns": [
							0.0021256268955767155,
							-0.0004994995542801917,
							-0.02107989229261875,
							-0.0004995004273951054,
							-0.0004994997289031744,
							0.016067320480942726,
							-0.04520310088992119,
							0.0004995003691874444,
							0.0004995005438104272,
							-0.000768410274758935,
							0.07754454016685486,
							0.010162313468754292,
							0.0004995004273951054,
							0.0594622939825058,
							0.003617295064032078,
							0.03525835648179054,
							0.0004995001363568008,
							0.0004994996706955135,
							-0.000499500019941479,
							0.007494856603443623,
							0.004562194924801588,
							0.052125174552202225,
							-0.02927871234714985,
							0.0004995005438104272,
							0.018359696492552757,
							0.025706252083182335,
							0.02934172935783863,
							0.0004994992632418871,
							0.0004995001363568008,
							0.010077591985464096
						]
					},
					{
						"columns": [
							0.03684987127780914,
							-0.000499500019941479,
							0.07590466737747192,
							-0.0004994995542801917,
							-0.0004995004273951054,
							-0.016256948933005333,
							-0.05212125554680824,
							0.0004995003691874444,
							0.000499500019941479,
							-0.038820233196020126,
							-0.19660888612270355,
							-0.022045426070690155,
							0.000499500019941479,
							0.12271595746278763,
							-0.008106986060738564,
							0.05581745132803917,
							0.0004994997289031744,
							-0.0004995004273951054,
							-0.0004994996706955135,
							0.004308713134378195,
							0.014690648764371872,
							-0.00408270675688982,
							0.058921921998262405,
							-0.0004994996706955135,
							-0.17531488835811615,
							-0.009082573466002941,
							-0.20620298385620117,
							-0.0004995004856027663,
							0.0004994995542801917,
							0.12136383354663849
						]
					},
					{
						"columns": [
							0.07237760722637177,
							-0.0004995003691874444,
							0.022696003317832947,
							-0.0004994997289031744,
							0.0004995001945644617,
							-0.1621631383895874,
							0.061993420124053955,
							-0.0004995003691874444,
							0.0004995003691874444,
							-0.007663681171834469,
							0.15727049112319946,
							-0.03082430176436901,
							0.000499499961733818,
							-0.01672644540667534,
							-0.0600077360868454,
							-0.06529420614242554,
							-0.0004994997289031744,
							-0.0004995001945644617,
							-0.0004995004856027663,
							-0.02228676527738571,
							-0.01763780787587166,
							0.019624939188361168,
							0.0940806046128273,
							-0.0004994997871108353,
							0.08719807118177414,
							-0.14990554749965668,
							0.12218356132507324,
							-0.0004994998453184962,
							-0.000499500019941479,
							-0.008971688337624073
						]
					},
					{
						"columns": [
							-0.028961805626749992,
							0.0004994996124878526,
							-0.04057813435792923,
							0.0004995005438104272,
							0.0004995008930563927,
							-0.04656423255801201,
							0.014941799454391003,
							0.0004995003691874444,
							-0.0004995001945644617,
							-0.006350471638143063,
							0.05148829519748688,
							0.023826662451028824,
							-0.0004995001945644617,
							0.007369399536401033,
							0.06530380249023438,
							0.04165409505367279,
							-0.0004994995542801917,
							0.0004995000781491399,
							-0.0004995007766410708,
							0.004351849667727947,
							0.005365613382309675,
							0.022891651839017868,
							-0.05480396747589111,
							-0.0004995007766410708,
							-0.028998617082834244,
							0.03587578237056732,
							-0.09724035859107971,
							-0.000499500019941479,
							0.0004995007766410708,
							0.00973264779895544
						]
					},
					{
						"columns": [
							0.0767393708229065,
							0.0004994996124878526,
							0.03948325291275978,
							-0.0004995006020180881,
							0.0004995001363568008,
							0.012079720385372639,
							-0.17693166434764862,
							-0.0004994997871108353,
							0.0004994993796572089,
							-0.022041192278265953,
							0.00026194285601377487,
							-0.02084255777299404,
							0.0004995004856027663,
							-0.04570094868540764,
							-0.07687671482563019,
							-0.06407419592142105,
							0.0004995004273951054,
							-0.0004995001363568008,
							0.0004995001363568008,
							0.003430345095694065,
							-0.07595918327569962,
							0.04891516640782356,
							0.010868501849472523,
							-0.0004994996706955135,
							0.08491849899291992,
							-0.00038015696918591857,
							-0.007182339671999216,
							0.0004995005438104272,
							0.0004994997289031744,
							0.009074226953089237
						]
					},
					{
						"columns": [
							0.003811466507613659,
							-0.0004995003691874444,
							0.00675635039806366,
							-0.0004994997289031744,
							-0.0004995007766410708,
							-0.05384250730276108,
							-0.0027469824999570847,
							0.0004994996706955135,
							-0.0004994996706955135,
							-0.008766734972596169,
							0.024810252711176872,
							-0.029033532366156578,
							-0.0004994996124878526,
							0.19687902927398682,
							0.008661061525344849,
							0.004497839603573084,
							0.0004994997871108353,
							-0.0004995000781491399,
							0.0004994996706955135,
							0.005087248515337706,
							-0.00020517598022706807,
							-0.003953288309276104,
							0.05742079019546509,
							0.0004994997289031744,
							0.11633342504501343,
							-0.03582405671477318,
							-0.0494404099881649,
							0.0004995003691874444,
							0.0004994996706955135,
							-0.05605065077543259
						]
					},
					{
						"columns": [
							0.07225628942251205,
							-0.0004995005438104272,
							0.024543998762965202,
							-0.0004994999035261571,
							0.0004995003691874444,
							-0.1608402580022812,
							0.0639697015285492,
							-0.0004995006020180881,
							0.0004995003691874444,
							-0.008065782487392426,
							0.1558622270822525,
							-0.0309247188270092,
							0.0004995008930563927,
							-0.01703474670648575,
							-0.05865567550063133,
							-0.06336477398872375,
							-0.0004994997289031744,
							-0.0004995001945644617,
							-0.0004995000781491399,
							-0.0222049281001091,
							-0.017023934051394463,
							0.016324009746313095,
							0.09429576992988586,
							-0.0004995007766410708,
							0.08693176507949829,
							-0.1472543179988861,
							0.12230544537305832,
							-0.0004995000781491399,
							-0.0004994997871108353,
							-0.009000567719340324
						]
					},
					{
						"columns": [
							-0.014805901795625687,
							0.000499500019941479,
							-0.03355042636394501,
							0.000499500019941479,
							-0.0004995003691874444,
							-0.07394899427890778,
							0.010059802792966366,
							-0.0004995006020180881,
							-0.0004995005438104272,
							-0.015759743750095367,
							0.07429477572441101,
							0.02255435101687908,
							0.0004995004856027663,
							0.014907087199389935,
							0.05302480608224869,
							0.0369979664683342,
							-0.0004994995542801917,
							0.0004994996706955135,
							-0.0004995007766410708,
							0.008842382580041885,
							0.0029084528796374798,
							0.007461213041096926,
							-0.04042375832796097,
							-0.0004995007766410708,
							-0.026676462963223457,
							0.01768435910344124,
							-0.08171429485082626,
							-0.0004994998453184962,
							0.0004995007766410708,
							0.016724027693271637
						]
					},
					{
						"columns": [
							0.05155790224671364,
							-0.0004994996124878526,
							0.045361652970314026,
							-0.0004994997289031744,
							0.0004995003691874444,
							0.015618416480720043,
							-0.16661520302295685,
							0.0004994997871108353,
							-0.0004995001363568008,
							-0.028206560760736465,
							0.017306603491306305,
							-0.014631833881139755,
							-0.0004995001363568008,
							-0.04299883171916008,
							-0.06869576871395111,
							-0.05352668836712837,
							-0.0004994996706955135,
							-0.0004995001363568008,
							0.0004994997289031744,
							0.004098725039511919,
							-0.07399126142263412,
							0.03473186865448952,
							0.02207985706627369,
							-0.0004994996706955135,
							0.09002871811389923,
							0.007898908108472824,
							-0.004826617892831564,
							0.0004994996706955135,
							-0.0004994997871108353,
							0.014901882037520409
						]
					},
					{
						"columns": [
							-0.03103506751358509,
							0.0004994998453184962,
							-0.009842914529144764,
							-0.0004994997289031744,
							0.000499499961733818,
							-0.05802260339260101,
							0.00142023921944201,
							0.0004994997289031744,
							-0.0004995007766410708,
							-0.006203303579241037,
							-0.01856575347483158,
							0.01145150512456894,
							0.0004994997289031744,
							0.132230743765831,
							0.01046142540872097,
							-0.0031096115708351135,
							-0.0004994997289031744,
							-0.0004995001945644617,
							-0.0004995007766410708,
							0.006491822190582752,
							-0.007583671249449253,
							-0.01916850171983242,
							0.03639574348926544,
							-0.0004994997289031744,
							0.09386271238327026,
							-0.006459880620241165,
							-0.038154467940330505,
							-0.0004995006020180881,
							0.0004994996124878526,
							-0.024168474599719048
						]
					},
					{
						"columns": [
							0.07277802377939224,
							-0.0004995005438104272,
							0.026924194768071175,
							-0.0004994997289031744,
							0.0004995001363568008,
							-0.15618467330932617,
							0.07272748649120331,
							0.0004995004273951054,
							0.0004994993796572089,
							-0.009131272323429585,
							0.14986467361450195,
							-0.031027037650346756,
							0.0004995007766410708,
							-0.022764140740036964,
							-0.05710155889391899,
							-0.06026075407862663,
							-0.000499500019941479,
							-0.0004994997871108353,
							-0.0004995004856027663,
							-0.021313371136784554,
							-0.01656406931579113,
							0.010743890888988972,
							0.09232418239116669,
							-0.0004994997289031744,
							0.08276728540658951,
							-0.14373399317264557,
							0.11838981509208679,
							0.0004994998453184962,
							-0.0004995001945644617,
							-0.009467681869864464
						]
					},
					{
						"columns": [
							-0.027500858530402184,
							0.0004994998453184962,
							-0.035904303193092346,
							-0.0004994997289031744,
							0.0004994996706955135,
							-0.044048722833395004,
							0.007408646866679192,
							-0.0004995006020180881,
							-0.000499500019941479,
							-0.01168840378522873,
							0.08026482909917831,
							0.01742505468428135,
							-0.0004995006020180881,
							0.023205816745758057,
							0.05486747622489929,
							0.045215215533971786,
							-0.0004994995542801917,
							0.0004994997289031744,
							-0.0004994995542801917,
							-0.0005514220101758838,
							0.006308600772172213,
							0.0041110278107225895,
							-0.051042355597019196,
							-0.0004994996706955135,
							-0.028651900589466095,
							0.018115350976586342,
							-0.08003909140825272,
							-0.0004994993796572089,
							0.0004995001363568008,
							0.020757552236318588
						]
					},
					{
						"columns": [
							-0.0012905173934996128,
							0.0004995001945644617,
							0.03943733498454094,
							0.0004994996706955135,
							0.0004994996706955135,
							0.023091431707143784,
							-0.1728888899087906,
							0.0004994995542801917,
							0.0004995004856027663,
							-0.02940920926630497,
							0.010732140392065048,
							0.006898920983076096,
							-0.000499500019941479,
							-0.03427382931113243,
							-0.048189979046583176,
							-0.04390016198158264,
							0.0004995001363568008,
							-0.0004995004856027663,
							-0.0004995001945644617,
							0.010116225108504295,
							-0.06686386466026306,
							0.03819798305630684,
							0.023390406742691994,
							-0.000499500019941479,
							0.08786597102880478,
							0.02904118038713932,
							-0.003413623198866844,
							0.0004994995542801917,
							-0.0004994996124878526,
							0.027195043861865997
						]
					},
					{
						"columns": [
							-0.060383718460798264,
							0.0004994996706955135,
							-0.027383150532841682,
							-0.0004994999035261571,
							0.0004995001945644617,
							-0.04881756007671356,
							-0.00010090769501402974,
							-0.0004994995542801917,
							0.0004994993796572089,
							-0.004418208729475737,
							-0.04197577387094498,
							0.03013710491359234,
							0.0004994996706955135,
							0.07794012874364853,
							0.013168253004550934,
							-0.01369789894670248,
							-0.0004995003109797835,
							0.0004994996706955135,
							-0.0004995004273951054,
							0.003930902108550072,
							-0.012433239258825779,
							-0.01100610475987196,
							0.01968926563858986,
							0.000499500019941479,
							0.06610293686389923,
							0.009540839120745659,
							-0.036849670112133026,
							0.0004995004856027663,
							0.0004995003109797835,
							-0.0026893713511526585
						]
					},
					{
						"columns": [
							0.059911929070949554,
							-0.0004995005438104272,
							0.02946431003510952,
							-0.0004994999035261571,
							0.0004995001363568008,
							-0.14010345935821533,
							0.07587733119726181,
							0.0004994997289031744,
							0.0004995001363568008,
							-0.007195253390818834,
							0.14095886051654816,
							-0.036453161388635635,
							0.000499500019941479,
							-0.02175704762339592,
							-0.046170227229595184,
							-0.0404803529381752,
							-0.0004994992632418871,
							-0.0004994996124878526,
							-0.0004995004856027663,
							-0.019649146124720573,
							-0.012304886244237423,
							-0.00008778623305261135,
							0.08493830263614655,
							0.0004995007766410708,
							0.07798255980014801,
							-0.12198232114315033,
							0.11645882576704025,
							0.0004995003109797835,
							0.0004994995542801917,
							-0.020837854593992233
						]
					},
					{
						"columns": [
							-0.021553216502070427,
							0.0004994997289031744,
							-0.03211873397231102,
							0.000499500019941479,
							0.000499500019941479,
							-0.055930156260728836,
							0.0012543955817818642,
							0.0004995004273951054,
							-0.000499499961733818,
							-0.013938055373728275,
							0.11107046902179718,
							0.025098485872149467,
							-0.0004995001945644617,
							0.04045740142464638,
							0.05171317979693413,
							0.06523964554071426,
							-0.0004994996124878526,
							0.0004995001363568008,
							-0.0004994996706955135,
							-0.004901242908090353,
							0.005055727902799845,
							0.017095662653446198,
							-0.05797140300273895,
							-0.0004994995542801917,
							-0.03317828103899956,
							0.006778642535209656,
							-0.05587043985724449,
							-0.0004994993796572089,
							0.0004995001363568008,
							0.02512398734688759
						]
					},
					{
						"columns": [
							-0.0020242463797330856,
							-0.0004994997289031744,
							0.031887076795101166,
							0.0004995001945644617,
							0.0004994997289031744,
							0.0049714273773133755,
							-0.13844171166419983,
							0.0004994994960725307,
							0.0004995004856027663,
							-0.034554373472929,
							-0.010343639180064201,
							0.006494106724858284,
							0.0004994996706955135,
							-0.035597190260887146,
							-0.03955181688070297,
							-0.04540352523326874,
							-0.0004995007766410708,
							-0.0004995007766410708,
							0.0004994994960725307,
							0.01181354746222496,
							-0.062208063900470734,
							0.033932026475667953,
							0.032911792397499084,
							0.0004994993796572089,
							0.07185064256191254,
							0.03226451948285103,
							-0.015870267525315285,
							-0.0004994997289031744,
							0.0004994997289031744,
							0.016230961307883263
						]
					},
					{
						"columns": [
							-0.061882250010967255,
							-0.0004994996124878526,
							-0.037190549075603485,
							-0.0004994994960725307,
							0.0004994996706955135,
							-0.03146876022219658,
							0.008098768070340157,
							-0.0004994993796572089,
							0.0004994997871108353,
							-0.006404748652130365,
							-0.03457050397992134,
							0.03309785574674606,
							-0.0004994996706955135,
							0.0366923063993454,
							0.002789415419101715,
							-0.024949146434664726,
							-0.0004994996706955135,
							0.0004995003691874444,
							-0.0004995007766410708,
							0.0017505388241261244,
							-0.015440184623003006,
							-0.006419170647859573,
							0.006692124530673027,
							-0.0004995001945644617,
							0.04926338046789169,
							0.008574648760259151,
							-0.044400904327631,
							-0.0004994993796572089,
							-0.0004995001363568008,
							0.0044997031800448895
						]
					},
					{
						"columns": [
							0.04473411664366722,
							-0.0004995003691874444,
							0.027577843517065048,
							-0.0004994997289031744,
							0.0004995007766410708,
							-0.1292235404253006,
							0.06930912286043167,
							0.0004994997289031744,
							0.0004994996124878526,
							-0.00438268855214119,
							0.12988129258155823,
							-0.03445984050631523,
							0.0004995007766410708,
							-0.024514256045222282,
							-0.040549665689468384,
							-0.03552979975938797,
							-0.000499500019941479,
							-0.0004994996124878526,
							-0.0004994994960725307,
							-0.01740521751344204,
							-0.01109547633677721,
							0.010678162798285484,
							0.07742056995630264,
							0.0004995007766410708,
							0.066811703145504,
							-0.11159743368625641,
							0.11456936597824097,
							0.0004994998453184962,
							0.0004994996706955135,
							-0.01568451151251793
						]
					},
					{
						"columns": [
							-0.0012432363582774997,
							-0.0004994993796572089,
							0.0038388764951378107,
							0.0004995005438104272,
							0.0004995004273951054,
							-0.05835098400712013,
							-0.0059112319722771645,
							0.0004995006020180881,
							-0.0004995003109797835,
							-0.005682416260242462,
							0.09463249891996384,
							0.02803863026201725,
							-0.0004995001945644617,
							0.02424224466085434,
							0.048438798636198044,
							0.05148947611451149,
							-0.0004994995542801917,
							0.0004995000781491399,
							-0.0004994998453184962,
							-0.0005161170847713947,
							0.011270460672676563,
							-0.03650166466832161,
							-0.032824255526065826,
							-0.0004994997289031744,
							0.024843722581863403,
							0.014504630118608475,
							0.013479296118021011,
							-0.0004995005438104272,
							-0.0004995004856027663,
							-0.0026770676486194134
						]
					},
					{
						"columns": [
							-0.0017143954755738378,
							-0.0004995007766410708,
							0.024964578449726105,
							0.0004994996706955135,
							0.0004994995542801917,
							0.013226309791207314,
							-0.12586453557014465,
							-0.0004994994960725307,
							-0.0004994996124878526,
							-0.02959235943853855,
							-0.027155157178640366,
							0.026705807074904442,
							0.000499499961733818,
							-0.04323888570070267,
							-0.015070422552525997,
							-0.05850936844944954,
							0.0004995007766410708,
							-0.0004995006020180881,
							0.0004995003691874444,
							0.014006114564836025,
							-0.047066476196050644,
							0.022559236735105515,
							0.028472207486629486,
							-0.0004994996124878526,
							0.06551095098257065,
							0.04940588399767876,
							-0.03523877263069153,
							0.0004994996124878526,
							-0.0004994996706955135,
							0.022796539589762688
						]
					},
					{
						"columns": [
							-0.040537990629673004,
							0.0004994996706955135,
							-0.039427533745765686,
							-0.0004994994960725307,
							0.0004994996706955135,
							-0.02304789051413536,
							0.016514956951141357,
							0.0004995000781491399,
							-0.0004994992632418871,
							-0.01301686093211174,
							-0.01137459184974432,
							0.024278726428747177,
							-0.0004994995542801917,
							0.005035494454205036,
							-0.011849349364638329,
							-0.035002700984478,
							0.0004994996706955135,
							0.0004995004273951054,
							-0.0004994995542801917,
							0.00038785324431955814,
							-0.017474085092544556,
							-0.003248810302466154,
							0.006159017328172922,
							-0.0004994996706955135,
							0.04173288121819496,
							-0.0027959030121564865,
							-0.04916330799460411,
							0.0004994997871108353,
							0.0004995004273951054,
							-0.002434148918837309
						]
					},
					{
						"columns": [
							0.027324648573994637,
							0.0004994996706955135,
							0.021685907617211342,
							0.0004995006020180881,
							-0.000499500019941479,
							-0.10257340967655182,
							0.06703277677297592,
							0.0004995004273951054,
							0.0004995001363568008,
							0.0026562048587948084,
							0.10837089270353317,
							-0.026042470708489418,
							0.000499500019941479,
							-0.04271837696433067,
							-0.03343144431710243,
							-0.034682679921388626,
							-0.0004994992632418871,
							-0.0004995001945644617,
							-0.0004995000781491399,
							-0.01774023100733757,
							-0.007885726168751717,
							0.015380339697003365,
							0.07191375643014908,
							0.0004994996706955135,
							0.058317359536886215,
							-0.10356654971837997,
							0.08688934892416,
							0.0004995006020180881,
							0.0004994996124878526,
							-0.01106906495988369
						]
					},
					{
						"columns": [
							-0.022761253640055656,
							-0.0004994998453184962,
							-0.010802063159644604,
							0.0004995005438104272,
							0.0004995001363568008,
							-0.031529393047094345,
							0.003623496275395155,
							0.0004995001945644617,
							-0.0004994996706955135,
							-0.0037656270433217287,
							0.06261216849088669,
							0.0344102717936039,
							-0.0004995006020180881,
							0.004322578199207783,
							0.029985306784510612,
							0.028818951919674873,
							-0.0004994998453184962,
							0.0004995001363568008,
							-0.0004994995542801917,
							0.0008918610401451588,
							0.005964066833257675,
							-0.016946937888860703,
							-0.049731019884347916,
							-0.000499500019941479,
							-0.007809893228113651,
							-0.004842828959226608,
							-0.02251170575618744,
							-0.0004995005438104272,
							-0.0004995007766410708,
							0.0069495816715061665
						]
					},
					{
						"columns": [
							-0.019251881167292595,
							-0.0004995003691874444,
							0.011437233537435532,
							0.0004994997289031744,
							-0.000499499961733818,
							0.004676929675042629,
							-0.09620397537946701,
							0.0004994996706955135,
							-0.000499500019941479,
							-0.02513015642762184,
							-0.039836980402469635,
							0.021000120788812637,
							-0.0004995007766410708,
							-0.06407821178436279,
							-0.02310967817902565,
							-0.06290140002965927,
							-0.0004995004856027663,
							0.0004995004856027663,
							-0.0004995003691874444,
							0.012116230092942715,
							-0.0416327565908432,
							0.025522328913211823,
							0.031684886664152145,
							0.0004994996124878526,
							0.04247996211051941,
							0.05893876403570175,
							-0.047541264444589615,
							-0.0004994994960725307,
							-0.0004995003691874444,
							0.016322357580065727
						]
					},
					{
						"columns": [
							-0.010390041396021843,
							0.0004994996124878526,
							-0.03898998722434044,
							-0.000499500019941479,
							0.0004994997871108353,
							-0.010284017771482468,
							0.02397618070244789,
							0.0004994997289031744,
							-0.0004994994960725307,
							-0.022574735805392265,
							0.014244972728192806,
							0.015232343226671219,
							-0.0004994995542801917,
							-0.005362061318010092,
							-0.022923972457647324,
							-0.03462015464901924,
							-0.0004994995542801917,
							0.0004995003691874444,
							-0.0004994996706955135,
							0.000807075179181993,
							-0.01923229917883873,
							-0.007553476374596357,
							0.008707764558494091,
							-0.0004994996706955135,
							0.03560952842235565,
							-0.008510244078934193,
							-0.05044754967093468,
							0.0004995001363568008,
							0.0004995004273951054,
							-0.02343282662332058
						]
					},
					{
						"columns": [
							-0.0050548771396279335,
							0.0004995000781491399,
							0.014540285803377628,
							0.0004995004273951054,
							-0.000499499961733818,
							-0.06736826151609421,
							0.022405454888939857,
							0.0004995004273951054,
							0.0004995001363568008,
							0.014040175825357437,
							0.0891064703464508,
							-0.013293742202222347,
							0.000499500019941479,
							-0.01451138686388731,
							-0.011597882956266403,
							-0.0229867585003376,
							0.0004995007766410708,
							-0.0004994996706955135,
							-0.0004995003691874444,
							-0.016556134447455406,
							0.0013420237228274345,
							0.03181741014122963,
							0.055366892367601395,
							0.0004994996706955135,
							0.04986176639795303,
							-0.07607728242874146,
							0.0665208101272583,
							0.0004994998453184962,
							-0.0004994997289031744,
							-0.0010929259005934
						]
					},
					{
						"columns": [
							-0.05150223895907402,
							-0.0004995004856027663,
							-0.02686556614935398,
							0.0004995005438104272,
							0.000499500019941479,
							-0.036526232957839966,
							0.007453453727066517,
							0.0004995003109797835,
							-0.0004995001945644617,
							0.0006356560625135899,
							0.039020292460918427,
							0.024788565933704376,
							-0.0004995001945644617,
							-0.009043379686772823,
							0.02288612350821495,
							0.018831245601177216,
							-0.0004994996124878526,
							-0.0004995000781491399,
							-0.0004994996706955135,
							0.0005781794898211956,
							-0.004341312684118748,
							0.011772951111197472,
							-0.06392969936132431,
							-0.0004994998453184962,
							-0.043270230293273926,
							-0.018402479588985443,
							-0.03442705422639847,
							-0.0004995005438104272,
							-0.0004995006020180881,
							-0.004465153440833092
						]
					},
					{
						"columns": [
							-0.03904029726982117,
							-0.0004995003691874444,
							-0.0018631120910868049,
							-0.0004995000781491399,
							0.0004994996124878526,
							0.022191733121871948,
							-0.0837402418255806,
							0.0004994995542801917,
							0.0004995004273951054,
							-0.017803855240345,
							-0.05435369163751602,
							0.013730471022427082,
							-0.0004995001363568008,
							-0.07115833461284637,
							-0.023877523839473724,
							-0.0766831561923027,
							-0.0004995001363568008,
							0.0004995001945644617,
							0.0004995004856027663,
							0.011054253205657005,
							-0.03722909465432167,
							0.026423083618283272,
							0.00959825050085783,
							-0.0004995001945644617,
							0.015911363065242767,
							0.08318150043487549,
							-0.05061492696404457,
							0.0004995000781491399,
							0.0004994997871108353,
							0.0066293408162891865
						]
					},
					{
						"columns": [
							0.0113360695540905,
							0.0004994992632418871,
							-0.036305464804172516,
							-0.0004995001363568008,
							0.0004994996124878526,
							0.00036813062615692616,
							0.031333062797784805,
							0.000499500019941479,
							-0.000499500019941479,
							-0.031853269785642624,
							0.03879425302147865,
							0.006910085678100586,
							0.0004994997289031744,
							-0.017033303156495094,
							-0.034303467720746994,
							-0.031547073274850845,
							-0.0004994995542801917,
							0.0004995000781491399,
							-0.0004995007766410708,
							0.0022462508641183376,
							-0.018784714862704277,
							-0.01604529097676277,
							0.011318045668303967,
							-0.0004995007766410708,
							0.02841242216527462,
							-0.010781200602650642,
							-0.05264291167259216,
							-0.0004994994960725307,
							-0.0004994997289031744,
							-0.03790447860956192
						]
					},
					{
						"columns": [
							-0.038091812282800674,
							-0.0004994996706955135,
							0.007754931692034006,
							0.0004995003691874444,
							-0.0004994993796572089,
							-0.049084823578596115,
							-0.0017088050954043865,
							0.0004994998453184962,
							0.0004994998453184962,
							0.012278266251087189,
							0.09547226876020432,
							-0.0016435093712061644,
							-0.0004995004273951054,
							0.006171135231852531,
							-0.019451554864645004,
							0.00822333712130785,
							-0.0004995006020180881,
							-0.0004994995542801917,
							-0.000499500019941479,
							-0.02439163625240326,
							-0.0033166639041155577,
							0.04081713408231735,
							0.0333433672785759,
							0.0004994996706955135,
							0.04011677950620651,
							-0.06732650101184845,
							0.06726792454719543,
							0.0004994998453184962,
							0.000499499961733818,
							-0.00032523454865440726
						]
					},
					{
						"columns": [
							0.030980883166193962,
							-0.0004995001363568008,
							-0.01917312666773796,
							-0.0004994997289031744,
							0.0004995007766410708,
							-0.022653909400105476,
							0.06776241213083267,
							0.0004995003691874444,
							-0.0004994998453184962,
							-0.002016372513025999,
							0.04315350577235222,
							0.02434602379798889,
							-0.0004995001945644617,
							-0.016001762822270393,
							0.013605128973722458,
							0.04730061814188957,
							-0.0004995001945644617,
							-0.0004995006020180881,
							-0.0004995007766410708,
							0.001384918112307787,
							-0.0072478619404137135,
							-0.010103396140038967,
							-0.06905149668455124,
							-0.0004994996124878526,
							-0.019151747226715088,
							-0.003444199450314045,
							-0.01515437476336956,
							-0.0004995005438104272,
							0.0004995006020180881,
							-0.006043036002665758
						]
					},
					{
						"columns": [
							-0.045013610273599625,
							0.0004994995542801917,
							-0.007058328948915005,
							0.0004994997289031744,
							-0.0004994996706955135,
							0.03278662636876106,
							-0.0821351408958435,
							-0.0004994995542801917,
							0.0004994995542801917,
							-0.011125748045742512,
							-0.06630094349384308,
							0.017566435039043427,
							-0.0004995001945644617,
							-0.019582754001021385,
							-0.010149072855710983,
							-0.02556747756898403,
							-0.0004995003691874444,
							0.000499499961733818,
							0.0004995005438104272,
							0.016169875860214233,
							-0.025155972689390182,
							0.007125171832740307,
							-0.013025609776377678,
							-0.0004995003109797835,
							0.0048626139760017395,
							0.1089160218834877,
							-0.03216777741909027,
							0.0004994996706955135,
							0.0004994996124878526,
							-0.007385465782135725
						]
					},
					{
						"columns": [
							0.03761779144406319,
							0.000499500019941479,
							-0.033171121031045914,
							-0.000499500019941479,
							-0.0004994996124878526,
							0.0010725728934630752,
							0.04158014431595802,
							-0.0004995000781491399,
							0.0004994997289031744,
							-0.03994148597121239,
							0.06122910603880882,
							-0.0019946680404245853,
							0.0004995000781491399,
							-0.024467533454298973,
							-0.041641004383563995,
							-0.027035169303417206,
							-0.0004994998453184962,
							0.0004994996706955135,
							-0.0004994997289031744,
							0.0008984542218968272,
							-0.019032247364521027,
							-0.025692172348499298,
							0.017185207456350327,
							-0.0004994996706955135,
							0.021895423531532288,
							-0.017277903854846954,
							-0.05629181116819382,
							-0.0004995001945644617,
							0.0004995001945644617,
							-0.049421872943639755
						]
					},
					{
						"columns": [
							-0.021687639877200127,
							-0.000499500019941479,
							0.023336803540587425,
							-0.0004994999035261571,
							-0.0004994996124878526,
							-0.05935724079608917,
							0.01652541570365429,
							0.0004995005438104272,
							-0.0004995001363568008,
							0.01898779906332493,
							0.07008268684148788,
							0.00284375436604023,
							-0.0004994996706955135,
							-0.03153277188539505,
							-0.03186728432774544,
							-0.04652092233300209,
							0.0004995003691874444,
							0.0004995004856027663,
							-0.0004994994960725307,
							-0.022332586348056793,
							0.008759096264839172,
							0.024359406903386116,
							0.02596677839756012,
							0.0004994995542801917,
							0.05199720337986946,
							-0.08365655690431595,
							0.07053597271442413,
							-0.0004994993796572089,
							0.0004995000781491399,
							-0.00976608693599701
						]
					},
					{
						"columns": [
							0.0009339210810139775,
							-0.000499500019941479,
							-0.009694002568721771,
							-0.0004995001363568008,
							0.0004994995542801917,
							-0.05352558195590973,
							0.05110685154795647,
							-0.0004995003691874444,
							-0.000499499961733818,
							-0.009396851994097233,
							0.028867056593298912,
							0.02712138183414936,
							-0.0004995006020180881,
							-0.019612964242696762,
							0.003544177860021591,
							0.04273398593068123,
							-0.0004994995542801917,
							-0.0004994994960725307,
							0.0004994997871108353,
							0.005096156150102615,
							-0.012266756035387516,
							0.004493430722504854,
							-0.05565142259001732,
							-0.0004994996706955135,
							-0.012923292815685272,
							-0.015227383933961391,
							0.010198872536420822,
							-0.0004995001945644617,
							-0.0004995000781491399,
							-0.0046173748560249805
						]
					},
					{
						"columns": [
							-0.0133774159476161,
							-0.0004994996706955135,
							-0.010480137541890144,
							-0.0004995000781491399,
							-0.0004994996706955135,
							-0.0033265426754951477,
							-0.05236233398318291,
							-0.0004995000781491399,
							-0.0004995004273951054,
							-0.016672885045409203,
							-0.06423654407262802,
							0.006974115967750549,
							-0.0004995000781491399,
							-0.023714542388916016,
							-0.023250242695212364,
							-0.012356976047158241,
							0.0004995008930563927,
							0.0004995001945644617,
							-0.000499499961733818,
							0.0090885479003191,
							-0.03294570744037628,
							-0.008383304812014103,
							-0.0007736716652289033,
							-0.0004994996706955135,
							-0.0009880344150587916,
							0.13117943704128265,
							-0.022563032805919647,
							-0.0004994992632418871,
							0.0004994994960725307,
							-0.0161459818482399
						]
					},
					{
						"columns": [
							0.07448569685220718,
							0.0004994995542801917,
							-0.030397474765777588,
							-0.000499500019941479,
							-0.0004994992632418871,
							-0.008359221741557121,
							0.05420227348804474,
							-0.0004995000781491399,
							0.0004995001363568008,
							-0.04771026223897934,
							0.08498485386371613,
							-0.013597097247838974,
							-0.0004995007766410708,
							-0.030526382848620415,
							-0.04939679801464081,
							-0.020805176347494125,
							-0.0004994996706955135,
							0.0004995004273951054,
							0.000499500019941479,
							0.0002381501253694296,
							-0.020011136308312416,
							-0.03875637426972389,
							0.027752576395869255,
							0.0004994997871108353,
							0.022204607725143433,
							-0.029657701030373573,
							-0.06196499988436699,
							-0.0004995001945644617,
							0.0004995001945644617,
							-0.06226206570863724
						]
					},
					{
						"columns": [
							-0.07053361088037491,
							0.0004995003691874444,
							-0.003577289404347539,
							-0.0004994999035261571,
							-0.0004995006020180881,
							-0.04961292818188667,
							0.008146780543029308,
							-0.0004995004856027663,
							-0.0004995005438104272,
							0.02011779323220253,
							0.0725933089852333,
							0.004156625363975763,
							0.000499500019941479,
							-0.029652822762727737,
							-0.05178162455558777,
							-0.07905881106853485,
							-0.0004995004273951054,
							0.000499500019941479,
							0.0004994994960725307,
							-0.03551632910966873,
							0.011029094457626343,
							0.04602479189634323,
							-0.006830116733908653,
							-0.0004994996706955135,
							0.035510655492544174,
							-0.043858692049980164,
							0.0881403386592865,
							-0.0004995004273951054,
							-0.0004995001945644617,
							-0.011342965066432953
						]
					},
					{
						"columns": [
							0.021301742643117905,
							-0.0004994996124878526,
							-0.0005791924777440727,
							0.000499500019941479,
							0.0004995008930563927,
							-0.07698099315166473,
							0.032715000212192535,
							-0.0004995007766410708,
							-0.000499499961733818,
							0.0003986535593867302,
							0.006978135090321302,
							0.029494808986783028,
							-0.0004995001945644617,
							-0.03129959478974342,
							0.01650497317314148,
							0.033422891050577164,
							-0.0004994996706955135,
							-0.0004994995542801917,
							0.0004995005438104272,
							0.006562559399753809,
							-0.012280101887881756,
							0.0028511283453553915,
							-0.04867591708898544,
							-0.0004995005438104272,
							-0.003476947546005249,
							-0.03923289477825165,
							0.0024824943393468857,
							-0.0004995004856027663,
							-0.0004995000781491399,
							0.008837513625621796
						]
					},
					{
						"columns": [
							-0.04933036491274834,
							0.0004994996706955135,
							-0.010773462243378162,
							-0.0004995000781491399,
							0.0004994995542801917,
							-0.0011883459519594908,
							-0.06320299208164215,
							0.0004994996706955135,
							0.0004995007766410708,
							-0.014521453529596329,
							-0.09057064354419708,
							0.016071951016783714,
							0.0004995007766410708,
							0.0007766143535263836,
							-0.023923084139823914,
							-0.007866695523262024,
							-0.0004995006020180881,
							0.0004995005438104272,
							-0.000499499961733818,
							0.01312137208878994,
							-0.022255903109908104,
							-0.011766226962208748,
							-0.011525483801960945,
							0.0004994996706955135,
							-0.017129674553871155,
							0.14712916314601898,
							-0.0367286317050457,
							0.0004995006020180881,
							-0.0004994995542801917,
							-0.01578769087791443
						]
					}
				]
			},
			"layerbias": {
				"columns": [
					0.8792585134506226,
					-0.1360434889793396,
					-0.17746210098266602,
					-0.08717121928930283,
					-0.08824188262224197,
					-0.13874445855617523,
					1.014510989189148,
					-0.26774924993515015,
					-0.1141277402639389,
					-0.09035161882638931,
					-1.0087169408798218,
					-0.24564924836158752,
					-0.10660888999700546,
					0.10325296223163605,
					-0.4962728023529053,
					0.9233248829841614,
					-0.1542748212814331,
					-0.06927523761987686,
					-0.10562856495380402,
					0.12586498260498047,
					-0.5449928641319275,
					0.7257550954818726,
					0.884687602519989,
					-0.09628921002149582,
					-0.46163028478622437,
					-1.4387085437774658,
					-1.2968099117279053,
					-0.11440828442573547,
					-0.3793368935585022,
					-0.22856903076171875
				]
			},
			"layeractivationfunc": 0
		},
		{
			"layerinputdim": 30,
			"layeroutputdim": 15,
			"layerinputweight": {
				"rows": [
					{
						"columns": [
							-0.0004989992012269795,
							0.2452830970287323,
							-0.0004989997833035886,
							-0.12497282028198242,
							-0.14069662988185883,
							0.04228120297193527,
							0.021748889237642288,
							-0.027484579011797905,
							-0.15687766671180725,
							0.0004990000743418932,
							0.03169189766049385,
							-0.0004990003653801978,
							-0.019376948475837708,
							-0.7468864321708679,
							-0.2723405063152313
						]
					},
					{
						"columns": [
							0.0004989992594346404,
							0.0004990000743418932,
							-0.0004990009474568069,
							-0.0004989992594346404,
							-0.0004990001325495541,
							0.0004990003071725368,
							0.0004990001325495541,
							0.0004990004817955196,
							-0.0004990001325495541,
							0.0004989997833035886,
							-0.0004990001325495541,
							0.0004990000743418932,
							0.0004990001325495541,
							0.0004989992594346404,
							0.0004990005400031805
						]
					},
					{
						"columns": [
							-0.0004990001325495541,
							0.2026396244764328,
							0.0004989997833035886,
							-0.012112196534872055,
							-0.028731003403663635,
							-0.08766099065542221,
							-0.10331003367900848,
							0.13194899260997772,
							-0.04392828047275543,
							0.0004989994922652841,
							0.0699746310710907,
							-0.0004990001325495541,
							0.10951973497867584,
							-0.15156957507133484,
							-0.1477079689502716
						]
					},
					{
						"columns": [
							0.0004989992594346404,
							0.0004989979788661003,
							0.0004990003653801978,
							-0.0004990001325495541,
							0.0004989994922652841,
							-0.0004990074667148292,
							0.0004989973385818303,
							0.000498998153489083,
							0.0004990001325495541,
							-0.0004990003071725368,
							-0.0004990018205717206,
							0.0004989994340576231,
							-0.0004990021116100252,
							-0.0004989910521544516,
							-0.0004990001325495541
						]
					},
					{
						"columns": [
							-0.0004990003071725368,
							0.0004990007146261632,
							-0.0004990005400031805,
							-0.0004990004817955196,
							-0.0004990000161342323,
							0.0004990005400031805,
							0.0004990003071725368,
							0.0004990006564185023,
							0.0004990000743418932,
							-0.0004989998415112495,
							-0.0004990001325495541,
							-0.0004990006564185023,
							0.0004989994340576231,
							-0.0004990003071725368,
							0.0004990006564185023
						]
					},
					{
						"columns": [
							0.0004989998415112495,
							-0.20079372823238373,
							0.0004990000743418932,
							0.14228227734565735,
							0.04269488528370857,
							-0.06857574731111526,
							-0.03744715824723244,
							-0.46690627932548523,
							0.13610626757144928,
							-0.0004989994922652841,
							0.20104444026947021,
							0.0004990000743418932,
							0.006897006183862686,
							0.12571679055690765,
							0.2600574195384979
						]
					},
					{
						"columns": [
							0.0004990001325495541,
							0.45107677578926086,
							0.0004989996668882668,
							-0.15254321694374084,
							-0.12232322990894318,
							0.027550451457500458,
							-0.20956343412399292,
							-0.03512773662805557,
							-0.16471026837825775,
							0.0004990000161342323,
							-0.04795039817690849,
							0.0004990001325495541,
							0.04325953871011734,
							-0.11424211412668228,
							-0.2375183403491974
						]
					},
					{
						"columns": [
							-0.0004990003653801978,
							-0.0004990003071725368,
							-0.0004990007146261632,
							-0.0004989994340576231,
							0.0004990000743418932,
							-0.0004989996086806059,
							-0.0004990001325495541,
							-0.0004989998415112495,
							0.0004990005400031805,
							0.0004990003653801978,
							0.0004990001325495541,
							-0.0004990006564185023,
							0.0004989996086806059,
							0.0004989994340576231,
							0.0004989993758499622
						]
					},
					{
						"columns": [
							-0.0004989999579265714,
							-0.0004989993758499622,
							-0.0004989993758499622,
							0.0004989996086806059,
							-0.0004990003071725368,
							-0.0004990003071725368,
							-0.0004990007146261632,
							-0.0004989997250959277,
							-0.0004990001325495541,
							0.0004990001325495541,
							0.0004989998415112495,
							0.0004990000743418932,
							0.0004989996086806059,
							-0.0004989994340576231,
							-0.0004989997250959277
						]
					},
					{
						"columns": [
							0.0004990001325495541,
							-0.2154681533575058,
							-0.0004990001325495541,
							-0.07016749680042267,
							-0.021877853199839592,
							-0.15509332716464996,
							-0.038909267634153366,
							-0.06832829117774963,
							-0.004898130428045988,
							-0.000499000190757215,
							0.0674302875995636,
							0.0004990001325495541,
							0.059841983020305634,
							0.09227577596902847,
							0.03692471235990524
						]
					},
					{
						"columns": [
							0.0004990001325495541,
							0.0815824493765831,
							0.0004989992012269795,
							-0.06702414155006409,
							-0.058293215930461884,
							0.26096466183662415,
							-0.009828239679336548,
							0.2803276479244232,
							-0.05778299272060394,
							0.0004990005400031805,
							0.02026563324034214,
							0.0004990003653801978,
							0.13073405623435974,
							-0.1836892068386078,
							-0.1118035539984703
						]
					},
					{
						"columns": [
							-0.0004989996086806059,
							-0.02916317991912365,
							0.0004989994340576231,
							0.12822651863098145,
							0.03451618552207947,
							-0.2541548013687134,
							-0.08433938771486282,
							-0.1130714938044548,
							0.04555981606245041,
							-0.0004990003071725368,
							0.007408848963677883,
							0.0004990001325495541,
							0.12314045429229736,
							0.09148430824279785,
							0.07545135915279388
						]
					},
					{
						"columns": [
							0.0004989993758499622,
							0.000499000190757215,
							0.0004989992012269795,
							0.0004989996086806059,
							-0.0004989993758499622,
							0.0004989996086806059,
							-0.0004990004817955196,
							-0.0004990001325495541,
							0.0004989993758499622,
							-0.0004990006564185023,
							0.0004990004817955196,
							-0.0004990000743418932,
							0.0004990003071725368,
							-0.0004990000743418932,
							0.0004990001325495541
						]
					},
					{
						"columns": [
							-0.0004989994922652841,
							-0.08220498263835907,
							-0.0004989998415112495,
							-0.018222201615571976,
							0.006218029651790857,
							0.13323770463466644,
							0.02165166288614273,
							0.14456717669963837,
							0.04600631818175316,
							-0.0004990003071725368,
							0.09800511598587036,
							0.0004989994340576231,
							0.16760414838790894,
							0.24309203028678894,
							0.07927966862916946
						]
					},
					{
						"columns": [
							0.0004989992594346404,
							-0.24511991441249847,
							-0.0004990001325495541,
							0.12620331346988678,
							0.03232928737998009,
							-0.16779255867004395,
							-0.07708407193422318,
							-0.09377421438694,
							0.07654645293951035,
							-0.0004990003653801978,
							0.12488552927970886,
							0.0004989992594346404,
							0.1586219221353531,
							0.2626192271709442,
							0.1565721482038498
						]
					},
					{
						"columns": [
							-0.0004990000161342323,
							0.08729026466608047,
							0.0004989997250959277,
							0.06529242545366287,
							0.02225717157125473,
							0.17850300669670105,
							0.06416351348161697,
							0.047072846442461014,
							-0.007961926981806755,
							0.0004990000743418932,
							0.18285563588142395,
							0.0004989992012269795,
							0.14418676495552063,
							0.09535694867372513,
							0.038540538400411606
						]
					},
					{
						"columns": [
							-0.0004989993758499622,
							0.0004990001325495541,
							-0.0004989996086806059,
							-0.0004989998415112495,
							-0.0004989992594346404,
							-0.0004989997250959277,
							-0.0004990009474568069,
							-0.0004990001325495541,
							-0.0004990001325495541,
							0.0004990007146261632,
							-0.0004989994922652841,
							-0.0004990009474568069,
							-0.0004989994340576231,
							0.0004990003653801978,
							-0.0004990001325495541
						]
					},
					{
						"columns": [
							0.0004989996086806059,
							-0.0004989992012269795,
							-0.0004989998415112495,
							-0.0004990006564185023,
							-0.0004990005400031805,
							-0.0004989996086806059,
							-0.0004990005400031805,
							0.0004990003071725368,
							0.0004989993758499622,
							0.0004989997250959277,
							0.0004989992594346404,
							0.0004989996668882668,
							-0.0004989992012269795,
							-0.0004989996086806059,
							0.0004989999579265714
						]
					},
					{
						"columns": [
							0.0004990006564185023,
							0.0004989996086806059,
							0.0004990009474568069,
							-0.0004990000743418932,
							-0.0004990001325495541,
							-0.0004990003071725368,
							0.0004989998415112495,
							-0.0004989996668882668,
							0.0004989992594346404,
							-0.0004990001325495541,
							-0.0004990005400031805,
							0.0004990001325495541,
							0.0004989997250959277,
							0.000499000190757215,
							0.0004990006564185023
						]
					},
					{
						"columns": [
							0.0004989994340576231,
							-0.001806996762752533,
							0.0004989999579265714,
							0.05526904761791229,
							-0.002848831471055746,
							-0.03339320793747902,
							-0.029743371531367302,
							-0.04584736004471779,
							0.003159124869853258,
							0.0004990001325495541,
							0.08926370739936829,
							-0.0004989994340576231,
							0.030529409646987915,
							0.0022067863028496504,
							0.006164256017655134
						]
					},
					{
						"columns": [
							-0.0004990001325495541,
							-0.1270621120929718,
							-0.0004990006564185023,
							-0.004398662131279707,
							-0.001647316268645227,
							-0.07622459530830383,
							-0.083394855260849,
							-0.025828631594777107,
							0.04724203422665596,
							0.0004990000161342323,
							0.04090556874871254,
							-0.0004990001325495541,
							0.08700362592935562,
							0.13589495420455933,
							0.07977189868688583
						]
					},
					{
						"columns": [
							-0.0004989998415112495,
							-0.07646594196557999,
							0.0004990006564185023,
							0.004106764681637287,
							0.09210359305143356,
							-0.12155692279338837,
							0.3933219611644745,
							0.24667836725711823,
							0.04752805829048157,
							-0.0004990006564185023,
							0.029188239946961403,
							-0.0004989998415112495,
							0.05741465091705322,
							0.22978575527668,
							0.17263025045394897
						]
					},
					{
						"columns": [
							0.0004990009474568069,
							0.43044939637184143,
							-0.0004990001325495541,
							-0.018192175775766373,
							0.013419250026345253,
							-0.02110881730914116,
							0.13229413330554962,
							0.33262959122657776,
							-0.021175090223550797,
							-0.0004990001325495541,
							-0.10119374096393585,
							0.0004990001325495541,
							0.1784895956516266,
							0.09305864572525024,
							0.023902757093310356
						]
					},
					{
						"columns": [
							-0.0004990001325495541,
							-0.0004990000161342323,
							-0.0004989998415112495,
							0.0004990006564185023,
							0.0004989993758499622,
							-0.0004990001325495541,
							-0.0004989996668882668,
							0.0004990001325495541,
							-0.0004990004817955196,
							-0.0004989992012269795,
							-0.0004989994340576231,
							0.0004989994340576231,
							-0.0004990005400031805,
							-0.0004990001325495541,
							0.0004990006564185023
						]
					},
					{
						"columns": [
							0.0004990009474568069,
							0.2799623906612396,
							-0.0004990000743418932,
							-0.023583438247442245,
							-0.08307011425495148,
							0.09161040931940079,
							-0.06615851819515228,
							0.1744232028722763,
							-0.07693466544151306,
							-0.0004990000743418932,
							-0.05204366147518158,
							0.0004990003071725368,
							0.16316673159599304,
							-0.30913692712783813,
							-0.1643441617488861
						]
					},
					{
						"columns": [
							-0.0004990009474568069,
							-0.12388876080513,
							0.0004990001325495541,
							0.04621333256363869,
							0.08300521224737167,
							0.18039685487747192,
							-0.22236014902591705,
							-0.10606053471565247,
							0.0986209586262703,
							0.0004990001325495541,
							0.27205735445022583,
							0.0004990009474568069,
							0.04394185170531273,
							-0.04224221780896187,
							0.11140435934066772
						]
					},
					{
						"columns": [
							-0.0004990000161342323,
							0.14681893587112427,
							-0.0004990001325495541,
							-0.03431728109717369,
							-0.05523781105875969,
							0.1086224690079689,
							-0.04477284848690033,
							0.3469131886959076,
							-0.055893413722515106,
							-0.0004989997833035886,
							0.18813978135585785,
							0.0004990003653801978,
							0.16784392297267914,
							-0.04036320373415947,
							-0.11761277914047241
						]
					},
					{
						"columns": [
							-0.0004990009474568069,
							0.0004990001325495541,
							0.0004989996668882668,
							-0.0004990001325495541,
							-0.0004990003653801978,
							0.0004989992012269795,
							0.0004989997250959277,
							0.0004990000161342323,
							-0.0004990001325495541,
							-0.0004989994922652841,
							0.0004990006564185023,
							-0.0004990009474568069,
							-0.0004989992012269795,
							-0.0004990001325495541,
							-0.0004989997250959277
						]
					},
					{
						"columns": [
							-0.0004990006564185023,
							0.0004989996668882668,
							0.0004989997250959277,
							-0.0004990001325495541,
							-0.0004990001325495541,
							0.0004990003071725368,
							-0.0004989994922652841,
							-0.0004989992012269795,
							0.0004990007146261632,
							0.0004990001325495541,
							-0.0004990007146261632,
							0.0004990009474568069,
							-0.0004990000743418932,
							0.0004990004817955196,
							0.0004990000743418932
						]
					},
					{
						"columns": [
							0.0004990009474568069,
							-0.09152191877365112,
							-0.0004989999579265714,
							-0.04838808998465538,
							0.009772330522537231,
							-0.36582690477371216,
							0.1497577428817749,
							-0.09327492862939835,
							-0.052342046052217484,
							-0.0004990003071725368,
							0.12215407937765121,
							0.0004989996086806059,
							0.051224078983068466,
							-0.03683675453066826,
							-0.03506368398666382
						]
					}
				]
			},
			"layerbias": {
				"columns": [
					-0.025919275358319283,
					0.858126163482666,
					-0.23828673362731934,
					0.29035934805870056,
					0.20962673425674438,
					0.33982840180397034,
					0.8813077807426453,
					0.21372507512569427,
					0.375274658203125,
					-0.029269682243466377,
					-0.8495694994926453,
					-0.019149113446474075,
					-1.2809877395629883,
					0.3097189664840698,
					0.3822214603424072
				]
			},
			"layeractivationfunc": 0
		},
		{
			"layerinputdim": 15,
			"layeroutputdim": 5,
			"layerinputweight": {
				"rows": [
					{
						"columns": [
							-0.0004950001602992415,
							-0.0004949996364302933,
							0.0004949999856762588,
							-0.0004950001602992415,
							0.0004950005677528679
						]
					},
					{
						"columns": [
							0.8452794551849365,
							-0.4164596498012543,
							0.2641197741031647,
							-0.2940402030944824,
							-0.4595476984977722
						]
					},
					{
						"columns": [
							0.0004949996364302933,
							0.0004950002185069025,
							0.0004950001602992415,
							0.0004950001602992415,
							-0.0004949997528456151
						]
					},
					{
						"columns": [
							0.7057870030403137,
							-0.21795234084129333,
							-0.26859143376350403,
							0.599351167678833,
							-0.2535591423511505
						]
					},
					{
						"columns": [
							0.19580520689487457,
							-0.040221914649009705,
							-0.3219459354877472,
							0.2509695589542389,
							-0.060317497700452805
						]
					},
					{
						"columns": [
							-0.7159475684165955,
							-0.5626633167266846,
							0.9258062839508057,
							0.510058581829071,
							-0.6921817064285278
						]
					},
					{
						"columns": [
							-0.5866143703460693,
							0.6890019178390503,
							0.33438482880592346,
							-0.28033214807510376,
							0.9258421659469604
						]
					},
					{
						"columns": [
							-1.3857327699661255,
							0.003140617860481143,
							0.21793702244758606,
							-0.09449151158332825,
							-0.04569236561655998
						]
					},
					{
						"columns": [
							0.0021660823840647936,
							-0.13897420465946198,
							-0.46018195152282715,
							0.27996310591697693,
							-0.1740521788597107
						]
					},
					{
						"columns": [
							-0.0004950004513375461,
							-0.0004950001602992415,
							-0.0004950001602992415,
							-0.0004950001602992415,
							-0.0004949996364302933
						]
					},
					{
						"columns": [
							-0.09257791191339493,
							-0.6197236776351929,
							0.2475000023841858,
							0.12740325927734375,
							-0.773724377155304
						]
					},
					{
						"columns": [
							0.0004950001020915806,
							-0.0004950004513375461,
							-0.0004949997528456151,
							-0.0004950001020915806,
							-0.0004950001602992415
						]
					},
					{
						"columns": [
							-0.3570168912410736,
							-0.1408822238445282,
							0.24706757068634033,
							0.3428266942501068,
							-0.17239806056022644
						]
					},
					{
						"columns": [
							-0.5000764727592468,
							0.3643968105316162,
							-1.1281962394714355,
							0.7015722990036011,
							0.46049726009368896
						]
					},
					{
						"columns": [
							-0.06783086061477661,
							-0.04427740350365639,
							-0.7407174706459045,
							0.5145843625068665,
							0.01813308708369732
						]
					}
				]
			},
			"layerbias": {
				"columns": [
					0.5781946182250977,
					0.5992576479911804,
					0.40178507566452026,
					-0.4221946597099304,
					0.5577508807182312
				]
			},
			"layeractivationfunc": 0
		},
		{
			"layerinputdim": 5,
			"layeroutputdim": 1,
			"layerinputweight": {
				"rows": [
					{
						"columns": [
							1.4457024335861206
						]
					},
					{
						"columns": [
							1.0002981424331665
						]
					},
					{
						"columns": [
							-1.6327334642410278
						]
					},
					{
						"columns": [
							-1.0901696681976318
						]
					},
					{
						"columns": [
							1.3071441650390625
						]
					}
				]
			},
			"layerbias": {
				"columns": [
					0.664997935295105
				]
			},
			"layeractivationfunc": 2
		}
	],
	"dimoutput": 1
}